<?xml version="1.0"?>
<opencv_storage>
<stage2>
  <maxWeakCount>10</maxWeakCount>
  <stageThreshold>-2.0805504322052002e+00</stageThreshold>
  <weakClassifiers>
    <_>
      <internalNodes>
        0 -1 13295 -1.7023834586143494e-01</internalNodes>
      <leafValues>
        -9.0230667591094971e-01 6.7263334989547729e-01</leafValues></_>
    <_>
      <internalNodes>
        0 -1 13295 -2.3236244916915894e-01</internalNodes>
      <leafValues>
        -8.0035579204559326e-01 1.6884779930114746e-01</leafValues></_>
    <_>
      <internalNodes>
        0 -1 79320 -9.5985040068626404e-02</internalNodes>
      <leafValues>
        4.2442098259925842e-01 -3.1347000598907471e-01</leafValues></_>
    <_>
      <internalNodes>
        0 -1 5230 -5.3691726177930832e-02</internalNodes>
      <leafValues>
        6.8461829423904419e-01 -1.6294591128826141e-01</leafValues></_>
    <_>
      <internalNodes>
        0 -1 158868 -2.2545287385582924e-02</internalNodes>
      <leafValues>
        7.0087820291519165e-01 -9.6934534609317780e-02</leafValues></_>
    <_>
      <internalNodes>
        0 -1 154617 2.4920850992202759e-02</internalNodes>
      <leafValues>
        -1.3183240592479706e-01 6.2594032287597656e-01</leafValues></_>
    <_>
      <internalNodes>
        0 -1 147865 -1.3500767946243286e-01</internalNodes>
      <leafValues>
        -6.3709211349487305e-01 1.3823746144771576e-01</leafValues></_>
    <_>
      <internalNodes>
        0 -1 13169 -5.0241675227880478e-02</internalNodes>
      <leafValues>
        7.3224753141403198e-01 -8.1578530371189117e-02</leafValues></_>
    <_>
      <internalNodes>
        0 -1 5664 7.1391090750694275e-02</internalNodes>
      <leafValues>
        1.5416960418224335e-01 -4.7211214900016785e-01</leafValues></_>
    <_>
      <internalNodes>
        0 -1 162156 6.1646720860153437e-04</internalNodes>
      <leafValues>
        1.1646627634763718e-01 -5.5304676294326782e-01</leafValues></_></weakClassifiers></stage2>
</opencv_storage>
